chos,aalScore
-0.22368059898976406,0.11144314349612297
-0.5907701946896686,0.14148213554610783
-0.25530655092243154,0.30402403902720654
-0.3281949280181549,0.14985837076371064
-0.3508660615233402,0.1293309761911785
-0.17153299589365673,0.13442762496948268
-0.3197423183025909,0.08224062773292284
-0.26580653463643483,0.04891768755623953
-0.34325621079774793,0.09466239086685035
-0.3438695294296254,0.07157923547703918
-0.2400135480147998,0.1446728780153452
-0.27283995117115817,0.08773251621337465
-0.13598630595884778,0.1588714704147068
-0.17873612119710977,0.12338460358107835
-0.13752328629123253,0.11522084251046937
-0.3438695294296254,0.10201033268167205
-0.13285906441808437,0.13255767307327335
-0.22368059898976406,0.12553576416891504
-0.14640703767791738,0.05443978347927285
-0.15065279226605718,0.10860640050797062
-0.24262912423454905,0.052005009443964946
-0.26659715550389224,0.12545613576484144
-0.15065279226605718,0.04993099452558956
-0.17275434284249333,0.06856624103009507
-0.14640703767791738,0.0502440200213174
-0.15204172807174174,0.07473341215231795
-0.1312675338830548,0.06487044643655684
-0.2618177479466783,0.3000374073089877
-0.2834353812102866,0.14073099606895134
-0.17275434284249333,0.06594558146073633
-0.14203456445541773,0.05480876181587844
-0.14640703767791738,0.04443392507651075
-0.13752328629123253,0.03458431681699274
-0.22741126717819632,0.07013591698805709
-0.20297558250456837,0.04169329423991132
-0.15065279226605718,0.046151590369122746
-0.2227381937322412,0.25188095249142806
-0.17517152985431303,0.17186329054675475
-0.15478225643896246,0.031158859901527166
-0.11039531307251312,0.078149500507969
-0.14496418585893353,0.07413363891128022
-0.16012282738205535,0.025239896060693448
-0.1998430832060665,0.14180072552249362
-0.20503738379270686,0.1633758748033201
-0.12637284300007906,0.09560308504821419
-0.14496418585893353,0.05482659567347115
-0.12965648593349846,0.05724334477685136
-0.16272748064261483,0.12427490537036395
-0.17153299589365673,0.08730052167501312
-0.15880450231157048,0.04551123200303433
-0.11413918758073124,0.06976342163400047
-0.11953547977111446,0.08372352378527773
-0.14496418585893353,0.1114354722471664
-0.13443177073732696,0.038026819854600415
-0.18338132777583982,0.100270984389001
0.011594537625659023,0.36949843245670244
-7.7168012549724185,0.0
0.3848113750290848,0.1170214209501759
1.3440318989819384,0.10275737689342702
-0.25858257580839966,0.0864133268501992
4.287281020632085,0.3080093101862199
1.7358745030960903,0.3796364530196671
-0.13285906441808437,0.048053548472836195
-0.1122828456420742,0.18161095676073327
-0.1212809358324981,0.047465480520950704
-0.13598630595884778,0.008247440113135395
-0.0939403360308144,0.15985926100943498
-0.34616819406880445,0.06402439908158121
0.2385376921754052,0.08780420319358445
1.1131384896990832,0.029917298630921622
1.0787792260905495,0.22179599106346942
0.3858942627879803,0.134048534519922
-0.16401431696469235,0.026403875451992475
1.0392788705986156,0.23448519581186053
0.15543141375886182,0.07140734415375677
-0.09167613869880728,0.27171073507464255
0.5407073776940596,0.22302164413392644
0.4547193103929736,0.558200471460602
-0.20503738379270686,0.40639665270652364
-0.24262912423454905,0.38808088500260196
0.5721530169604113,0.11302309784653594
-0.09831248498464798,0.028578216543519955
-0.32496980707505196,0.10440877124649942
-0.2292538944509697,0.05778895716298528
0.43548104696004647,0.16801738219913007
-0.1312675338830548,0.0206506340423651
-0.12637284300007906,0.025397833063510074
0.7597800069853197,0.19113943744523026
0.47565291316164315,0.1499415880869757
0.6687455910709766,0.23061711296807577
0.20622239784762741,0.08002875752086393
0.240710814451492,0.02840659869494493
-0.2618177479466783,0.05657251891548985
0.4949613542801752,0.31118917024824727
1.0083906220186898,0.2833709762254252
0.3395398528230321,0.0753148521579359
-0.12637284300007906,0.18060438519712352
0.3395398528230321,0.19805851717860726
-0.06178140163083453,0.008019419703914153
0.6310322894453998,0.22841956961035037
-1.7242513454461605,0.29028816280027303
0.8802375659095346,0.22966779435057846
0.2695657411899484,0.044323554324936176
-0.1690638737814521,0.387546038692387
-3.801458184300198,0.9244988446360396
0.9214035659597943,0.2042702398679321
1.3101034409353045,0.2515772958214964
-3.678966660524196,0.06929791677635566
3.0515995102487827,0.22121410445515588
-3.801458184300198,0.0
0.6762988848736872,0.2802131611187455
-0.0961512532382555,0.05235328016380078
0.8743864677808096,0.3035903660618985
-0.37269507741624125,0.014020399960197218
-1.4793937829177366,0.39677576152364735
-18.76643590353477,0.9940485732697028
-0.2618177479466783,0.33617989819570226
-0.03534674730253011,0.06342576407881857
-0.09141258208921264,0.040326052857213045
-0.3000655631807015,0.08769060397083171
1.4750659618414348,0.3217074203425834
-0.29848861101126345,0.3888066864455813
1.6787728583549633,0.10200126467166667
1.022255157830946,0.6652508852623995
2.5885643059637364,0.2177351806209623
-5.990997823184501,0.5981784932031058
0.8281356195624516,0.24396579845075358
0.20285001162289315,0.2012772726615946
0.2332227472805459,0.20523173774471312
-0.6580430166106823,0.045708735240346875
0.9513689534511575,0.14998380034217443
-0.10652001648100655,0.02945273818169863
0.8272864781176913,0.09212225465325476
3.854920103536111,0.2684779421793469
-0.07396505898245898,0.1686519295173463
0.3220790465269517,0.08865230737692455
-0.2865427971395555,0.05667100861089794
0.44471673890839536,0.03387718719845974
0.8444687345152408,0.012354918910703614
-0.20399643843063492,0.16085453498117025
0.1379705638554755,0.007412265129929804
-0.054427978941704036,0.2775282584502349
-0.2989848845729623,0.0
-0.14350684346477308,0.02550480638303144
-2.836021997236931,0.18725947820916267
-0.41395256969825456,0.15369167569273712
0.16561672472427164,0.12489380295661566
-0.1230016435166487,0.022583756952093435
-0.1678157097723014,0.036250240196306426
-3.9204259607591503,0.0
3.271114362554083,0.39813534559624525
-6.8519705599359915,0.6389210399455059
1.6964550298989893,0.35823488957332444
-0.1004272390704179,0.416691087701905
0.3395398528230321,0.0037026037115704623
-0.16452614811442354,0.19868092284577843
-0.14496418585893353,0.033272882512588454
0.4292671040644198,0.1461003568601718
0.24515443986362725,0.0
0.5118767428655189,0.23093231145434545
-0.1312675338830548,0.17872673746508583
-0.2886204835219304,0.20147618014841875
0.2877729401925123,0.11446397133416243
1.3712204619057133,0.19674830626835738
1.2957744597486989,0.10768396764628935
0.7795435087194187,0.25012222778751714
0.6785207366378134,0.4544467367832758
-0.3117376222809832,0.03552767896505143
-0.12469862733124305,0.005569343466055441
16.428902957126205,0.07868152697369675
-0.3334471263060716,0.07304470345888593
0.22091256083124866,0.06933440758438168
-0.13752328629123253,0.2494885758055726
0.7612703656011697,0.3630909421179819
0.1874060695094869,0.08596539142375667
-0.2989848845729623,0.21867899888586245
-0.21010357113977632,0.0
-0.11776417490428104,0.0
-0.18107359641596088,0.0
2.8847407804369567,0.3261680590271492
-0.1312675338830548,0.03429207291537943
-0.3613503279350505,0.3701684772778251
0.6796456965035875,0.2595114123551521
1.0314164969852917,0.33254460755591153
-0.14350684346477308,0.07612451474591833
-13.106620798476737,0.6873546061191304
-0.8235923573033862,0.4643132631816269
-4.353110636783675,0.03289105587301396
2.610605948017702,0.09939664546036964
0.8285834126525388,0.4307268746461061
0.6532354208334384,0.183787786036581
-0.17275434284249333,0.08611051652875332
0.7681518157153713,0.41564143922695895
-0.17396712822067828,0.0
-1.3166485384590036,0.26566136625620146
-0.13285906441808437,0.04832250337052624
0.1965993897635873,0.12476839453586672
0.35555941099968785,0.20446408329263785
0.6594163692162804,0.21032452940234966
1.0398523243704214,0.06578067020491214
0.08055827234619298,0.2704868692543004
0.04121432905075269,0.4104294343123276
0.5598412815829611,0.3999044283098216
-0.18107359641596088,0.10886585706424258
0.9734407348543753,0.0916369215969046
2.4053353766502017,0.08198192850942582
0.8487029474661869,0.07594133002892625
2.270612282728995,0.17626716586063151
1.2120915317112364,0.22890158801373894
-6.332356900231273,0.10607736664255793
0.14229947074602417,0.11431141397063738
0.028505023434514234,0.040219736790260745
0.6300401616478013,0.17758046372464828
-3.8564663701797706,0.0
-13.558015092088729,0.011051112283419321
-3.154483414167876,0.0
-0.7726040107127499,0.3901755572652061
0.854525665748234,0.27254333149364623
0.21905390675679476,0.16810579533961906
0.5894384806998211,0.27332754712536933
0.5708599852404675,0.29393696475079695
0.5982136755858163,0.18174089470675198
-0.5500800741483798,0.31881034459454793
-0.20606056450141574,0.4419863284248917
-0.3117376222809832,0.10135284858074099
1.7965202064200922,0.16980078992595488
-0.1690638737814521,0.28431312040927353
-4.2516318278770795,0.1812742909769862
-0.3079990738471113,0.38703363211152103
-0.9014936444301201,0.5487706088060641
-0.14054687943236024,0.15879363957814283
-0.07742794695334843,0.2047951096481836
-0.11039531307251312,0.22994642350909258
-0.3469199547682794,0.09011223939051792
-2.785370528920686,0.1543815780149979
5.000435939298942,0.13085710754280513
0.47553109880070527,0.09815630639677525
-2.4295898316921236,0.5847565352234135
-1.2056406945625562,0.3866545948144654
-0.3438695294296254,0.29085947223296343
-0.12965648593349846,0.21363579194585317
-0.8369469157841218,0.16036329774724747
1.5007450769237856,0.4138986098472624
0.24485265255592767,0.32902745739634176
0.2019826240408572,0.1771116452442018
-0.13752328629123253,0.08069867820918027
-0.18678956277780595,0.09091655394957787
-0.03669470651279785,0.2914851324240691
0.2975662148222718,0.1730490392770208
0.44671984696149647,0.2237699435703724
-0.19451040604999875,0.28230369334146094
-3.5334147375594784,0.17150131953014935
0.7558182665697675,0.13164712189871272
0.6037188380936493,0.30034013585748404
-0.4005139165606184,0.23897578120330876
-0.12469862733124305,0.20691833392724793
0.7927581038971633,0.42733677784369534
-0.046596392024048694,0.2888254522512946
-0.22648434661116112,0.4131963642962874
-0.0939403360308144,0.19280455518384412
0.5521905600519171,0.42489210970068525
-0.13752328629123253,0.18381069795407678
-0.11953547977111446,0.15749185149947503
-0.320400394410364,0.4210522881228598
-6.599149209288135,0.11422318368244969
-0.16655820578529457,0.06450267118146623
-0.16012282738205535,0.18665094577329347
-0.1678157097723014,0.13367236432045237
-0.09167613869880728,0.2873190862136288
1.7924922526906772,0.2619735234990868
-0.10249839232716584,0.35279001245798214
0.9259967685978269,0.36802026374874025
-6.658348209281371,0.8921298068839026
-0.1212809358324981,0.31010619741558815
-0.3794228572381776,0.16737035963017988
0.7723673891631353,0.21969032177279546
0.25771738242684855,0.2783582904903912
0.9617648891229318,0.0778918666003543
1.0026262881567396,0.1678277372442631
-0.0961512532382555,0.40129827401817336
0.6322315269814377,0.23147251320072418
0.5298831327993427,0.040906412775809434
0.31876869513025957,0.20269222364355235
0.12760220854177068,0.2876601989478283
0.33029437212678014,0.32357027070910827
-0.25544548748786067,0.27723273252541625
0.7310452335995549,0.26210512074839326
-0.1004272390704179,0.17117326676128097
-0.10652001648100655,0.5310822084489355
-0.25612947248219015,0.5973339848736553
0.22692977994755986,0.18316921322857435
-0.741902052903556,0.3500393939213943
0.0037929696411726256,0.19848246934573502
3.7362032413390773,0.22594026345671958
-0.6835406955461334,0.07924646439145094
-0.11039531307251312,0.06463607616661152
0.17251063051640006,0.5352687916134659
0.7689517778319831,0.3633132028169251
-0.2055542835957666,0.385425657853401
-0.10249839232716584,0.3834203417661072
-0.20503738379270686,0.24450829721678463
0.3634342788406992,0.12858655499965801
-1.4622479709988994,0.26312906161204563
-0.20376730523933495,0.22312360686348912
0.22177947295852066,0.09460328395741924
-0.10452853653867923,0.1552552313511269
-0.1212809358324981,0.13790311098219007
-0.054427978941704036,0.09023873101666036
-0.2900432034300644,0.21069782118418012
-0.18223110911143708,0.025664373136996845
-0.2357099622135722,0.22759895673816102
-0.08559412377152928,0.20507668803868914
-0.30134516935579775,0.30118873791641765
-0.14640703767791738,0.39171548632653386
-0.1923360215998038,0.1738207404686287
0.2784531975615698,0.2421339231509405
-0.20780163289582484,0.29616655216931154
0.6823111632471858,0.30140346879302976
0.7463464356564703,0.34356233858774154
-0.10847496167440107,0.44787921181022383
-1.473177010834318,0.4269965598293377
0.3858942627879803,0.14684724736724467
1.2090185520763836,0.08027178012239436
0.3634342788406992,0.1504977531221466
-0.08935461106563791,0.15027654651416672
-0.1004272390704179,0.28935729334221183
-0.4866655559274628,0.0
-0.20607982099654792,0.14269680950760108
0.9160476714267899,0.09232696423801091
-0.14783582319881808,0.14845388554632338
-0.1004272390704179,0.14307784424742662
-0.1678157097723014,0.032341486499129775
0.9228476840185934,0.0
0.7567918009617655,0.0
0.2476032593219785,0.12555297753981612
0.0755870070390061,0.1528655049288295
0.6106076726641538,0.11445190519378551
-0.14640703767791738,0.1509860582582537
0.3020628337669771,0.3813126733772148
0.20629811143847968,0.24125869516013054
0.4298010319173092,0.3659180344850223
0.8190739679557029,0.2598183605075536
-0.10249839232716584,0.039952580189494546
0.5825956071685516,0.09584870807362993
-0.31408564663758637,0.4444806529785351
-0.14054687943236024,0.019813517946144027
-0.13285906441808437,0.03616693176562436
-0.17873612119710977,0.48449646577014527
-0.19666079598857505,0.2590572236612973
-0.358970492378459,0.13797504840094152
0.3634342788406992,0.25487693513635445
0.6659001817562106,0.2113961654557895
0.6652784424729171,0.21799185201653148
-0.5546777302261331,0.24732326669386892
-0.12637284300007906,0.3226714562290284
-0.4671721454863091,0.03348541944345115
0.4720224790293432,0.5942166797771409
-0.13752328629123253,0.3499250690896417
-0.22179179419069128,0.2353038946179608
-0.16012282738205535,0.04628231425409496
0.17065689976509077,0.7062720503098272
0.3589174495137986,0.09621555733166288
-0.18223110911143708,0.19759096075794982
-0.20459128875024118,0.251109810385139
-0.2759085779181454,0.3072260147876287
0.31639582485737255,0.24732070623208688
-0.21988680573960648,0.17411902843997734
-0.10249839232716584,0.37479359217368224
0.3852666692132652,0.04935334088497465
-0.2357099622135722,0.18834612398075465
-0.10652001648100655,0.2877029729409868
0.0037929696411726256,0.1325206138280145
0.5433150165598368,0.20797972188062877
0.7723673891631353,0.1837806206156143
0.09479947611349958,0.1517783999217722
1.1549673521056942,0.08385423709392612
-0.13904329388940265,0.0
0.723672486438418,0.03149238602337148
0.2215551197951835,0.3487356324526255
-0.10249839232716584,0.04635977975796009
-0.1122828456420742,0.3797781435764413
-0.09329924638982691,0.19789659759404946
-0.11413918758073124,0.26655953178996566
-0.15880450231157048,0.03134082855752966
-0.0961512532382555,0.042768555835755395
-0.17153299589365673,0.1585695908289249
0.14673257438063403,0.23380467807162097
-2.3243657747512447,0.3502176675058284
4.164069686394502,0.1907945008368617
-0.12367446187746486,0.0
0.19359453891091105,0.3638245422387916
-0.20249876775682085,0.3125637482860746
-0.10249839232716584,0.2984613543557202
0.2695657411899484,0.30906690053502334
-0.3301149576319135,0.16946558874119153
-0.10452853653867923,0.009281328856195682
-0.14783582319881808,0.25896872440809177
-0.2337971022840823,0.27868106097676976
-0.16143040042933285,0.08064982878791127
-0.23469521883019667,0.18051010326934824
0.15426086909692097,0.06504772299829405
-0.27437853829826964,0.3826368954222379
-0.16012282738205535,0.28890466406531917
-0.09831248498464798,0.15512663898290813
-0.15613450446393193,0.293457220241912
-0.22931815309750553,0.08655683066527914
-0.12965648593349846,0.05062065712877818
-0.2841771400850728,0.1416720472873207
-0.14640703767791738,0.24734016900164965
-0.11953547977111446,0.2062142945274309
-0.10847496167440107,0.045108457494213605
0.4830854260866711,0.18779520480453135
0.5376670103368932,0.11340097160113663
-0.12469862733124305,0.03383721021566117
1.1045455708277676,0.21341391699115478
0.19359453891091105,0.04569561371388779
-0.14054687943236024,0.1206791792847164
-0.16529114865018726,0.18657630945523038
-0.19451040604999875,0.022528458547177777
0.5085595035829028,0.2766813931341932
-0.10249839232716584,0.1882229036452763
-0.13752328629123253,0.20464758484795173
-0.10847496167440107,0.17957476765138425
0.1379705638554755,0.1487357654803968
-0.17873612119710977,0.045052553082301924
0.4653402392156894,0.36115435109656696
-0.10847496167440107,0.19369333228856575
-0.13752328629123253,0.17191013626165372
-0.0939403360308144,0.20513919186700635
-0.14783582319881808,0.14813396878991075
-0.2804488068071882,0.26843289886783156
-4.092308788862838,0.0
1.013460613280262,0.10645977616603991
-0.09167613869880728,0.1269760826567115
-0.10847496167440107,0.018439568895634827
0.6212089188692743,0.12151168488538107
0.3858942627879803,0.012068088191333627
-0.1775558631279157,0.08252850338617464
-0.09831248498464798,0.13186556342138855
-0.14054687943236024,0.3716871229651846
-0.19558855066249684,0.1546511284406756
-0.0961512532382555,0.02329591246126096
-0.10652001648100655,0.015730730834837815
0.703982988243701,0.16756342507450758
-0.35370050412974013,0.005965228946110706
0.6524426368509356,0.03452194164195041
-0.29374873381562155,0.09179810471331465
0.4890034661386859,0.13409508912243526
-1.0306036390095037,0.34995267235669714
0.24515443986362725,0.16882381649526987
-0.4106349451451814,0.20045313196419964
-0.14054687943236024,0.05765673465339963
0.25358507064039176,0.34120516383527394
0.33046001303791683,0.11261569087788936
-0.17396712822067828,0.2837886772008015
-0.1230016435166487,0.12363691374410896
0.587166403355608,0.0
0.4280463043122379,0.30140769626325586
-0.13443177073732696,0.09588779046883816
-4.9537590753317975,0.4345188929008712
1.6535301184885842,0.22378334713050857
-0.336436356988396,0.19546287719668134
0.17199952435977117,0.40699967794642905
0.12450044345863252,0.033708747123839915
1.1150228446139687,0.138509067518212
0.3078801140011116,0.17136864622043016
-0.976667316850498,0.31789069160779876
-0.11039531307251312,0.1675921979400607
0.5934720106401357,0.054238809392044764
-0.2511516333036301,0.056109412358778525
-0.17153299589365673,0.09508976282341956
-0.0007394421270525415,0.222452111845588
-0.791848100591129,0.1572245683999285
0.6078664978876224,0.14318428443698036
0.558728907216536,0.08940943295746485
-0.11596583676547118,0.06545167910476564
0.4430282763741428,0.10918466444037737
-0.12965648593349846,0.08133083277961504
-0.15204172807174174,0.26363491859052957
0.26295805269648886,0.34191013998716707
-0.15065279226605718,0.23795642606179374
0.3078801140011116,0.04201397360225542
-0.11596583676547118,0.1741498205995299
-1.125773824938665,0.34760152693374774
-0.24777770122630505,0.40814764682055543
0.6659001817562106,0.17893798471089814
-0.23289553188474993,0.014465657421951005
0.297607721403289,0.09322393241139246
0.4800611707492224,0.014237704388310693
-0.7825119871204262,0.12877809351666708
-0.1703029031733669,0.023454509075878285
-0.09831248498464798,0.13964866277802285
0.6637500265265369,0.0767362287330667
0.33046001303791683,0.13131004360175433
-0.2333117313763971,0.505071798434061
0.06196631346552287,0.488486071498996
0.2476032593219785,0.15191975183529524
-3.8784011790466106,0.5277000982233707
0.1909891415991313,0.2769082434665305
-9.566536811556452,0.11098685404544584
0.33275135120758953,0.20620624492226636
-5.498709432858653,0.022581613100945253
-0.1004272390704179,0.23258388052906695
-0.26342048534983303,0.18743767855804622
-0.12802518375964417,0.3012040243015461
-15.731877375203656,0.853182079679187
-0.3962783746803406,0.06198721364798049
0.3381392310425193,0.1519026419154511
-3.325875683233488,0.25319122381163756
0.772383296741168,0.21737327950779334
-0.41342164681604726,0.38319585703835074
-0.20089266585515972,0.0799507249689907
0.8228904599015314,0.23188548577911747
0.24515443986362725,0.10404504917643108
0.5330277736046598,0.069647814566058
-0.13598630595884778,0.208069326974369
-0.18338132777583982,0.1262243812827304
-0.1934262635043832,0.16289667404972386
0.6456211596014868,0.1878590386032527
-1.4802881128275267,0.10285034978388577
-0.10452853653867923,0.21831195180954263
-0.20503738379270686,0.4399080325833908
-0.09831248498464798,0.14011266156704846
-6.978936548088864,0.7558915115708156
-2.022466002811631,0.4319503784842394
-0.11039531307251312,0.3243661784063624
-0.11953547977111446,0.12195098543693214
-0.15065279226605718,0.2467412327605326
0.8680941745986722,0.06737983257233111
-42.220826934468114,0.1331314682413422
-0.11039531307251312,0.022453206805255053
-6.04784644749732,0.8397987931102006
-0.2055542835957666,0.3042203606752167
-7.532999832366772,0.7068471882469105
-0.26738544693298305,0.11931332039997666
-0.1230016435166487,0.0
-1.7428936336076453,0.5554770630007406
0.7467441839396782,0.4167558778253926
-5.7212086598572425,0.0
0.4195227001783703,0.1057148760215367
1.0608512821901546,0.036267552093100126
-0.3187605758590409,0.23638903870496145
0.5936874477015127,0.06350750093225052
0.6102368870601271,0.16539687346971216
-0.20289924931687378,0.17094192148135576
-0.18791192823024175,0.09695974924228176
-0.10847496167440107,0.18639930508569585
-0.11596583676547118,0.17531559139435957
0.2235487323653063,0.13559192845728193
0.16490054796751194,0.1281291632573537
0.3171413570695266,0.17913470200585507
0.41634522956468706,0.15412335018734374
-0.12965648593349846,0.0462790507130089
0.10020829868423496,0.3559610669269245
0.2690374419525777,0.20366749521046926
-0.8704890201274716,0.07745727728010687
0.6659001817562106,0.05707583204142057
0.42472865354552963,0.08852797252654997
-0.26342048534983303,0.02448119625932636
0.5076240770618247,0.17921878328483115
0.6330467473369051,0.06415653123733006
1.1873937361142566,0.08548648017677202
0.4219697111657284,0.2733326935707157
0.39503666386576924,0.2625067306852828
-0.11776417490428104,0.10548160445668471
-0.17636771949939256,0.28399033194128237
-0.16143040042933285,0.3037160606434526
-0.4406535113491093,0.2835448089968322
-0.22461906023827147,0.1504246834576322
-0.2434947577274228,0.11900068977778347
-0.16529114865018726,0.03457045641098457
-0.18107359641596088,0.32328634448379834
-0.1678157097723014,0.10365122236423864
0.1559325154392803,0.03590975573971949
0.42472865354552963,0.3392852425141965
-0.1212809358324981,0.0167350113849678
-0.16272748064261483,0.2340286074095188
-13.774277194875618,0.8377218316230982
0.1463207324497581,0.031884488842472566
-0.22084134901345892,0.029270519617439504
-0.5527298858882005,0.2803894276376485
0.017643929273107383,0.22208666990187398
-0.12965648593349846,0.25268770772962246
0.11021605418860764,0.15068643981206792
-0.21532260580466014,0.20193468430289777
-0.10652001648100655,0.686071952956969
-0.20089266585515972,0.28860437139576445
0.715648676977251,0.046710716841432846
-0.1678157097723014,0.034733151880507095
0.16071091743666838,0.15866523257931273
0.5407288063211413,0.08739631073097376
1.9067566270256469,0.2416367988535067
1.4425213944636783,0.15221766302771828
1.7237938354295912,0.17034571885050526
-0.18791192823024175,0.0
-0.17275434284249333,0.04404088072887971
-3.084245197265977,0.3029955379373524
-0.11776417490428104,0.10527265439886953
-0.13285906441808437,0.08453300301133838
5.065693728030423,0.10064790823836911
-0.18107359641596088,0.2020934127262974
0.17434314368321896,0.342199848892137
0.10530900475324385,0.027277843388601536
-0.3332905612809405,0.2684899062777491
-17.151206852805988,0.40074892393934125
-4.1380771775921845,0.5156478588185963
-0.12637284300007906,0.29910722503009785
-0.15204172807174174,0.23492885317180714
-0.15880450231157048,0.24745496295197353
0.7442133827245061,0.39328693265962894
-0.3651790615157667,0.17089957328870847
-2.3303786285389787,0.2656130364996253
-0.11092160409925457,0.21093881665393818
-0.20663109403806618,0.23679378580395757
0.3603888102985269,0.15609526135865084
-0.28969319382892633,0.0960578418223057
-4.300266806799047,0.15028775800291327
0.3524605192054768,0.3188393595596415
-0.12965648593349846,0.2073075427407773
0.4144254333021808,0.7236880830095164
-0.21505069975911598,0.1852183604732333
-3.6866316728709156,0.6815864738362913
0.9775151406426547,0.0643478568582585
1.7539891630737607,0.20580175676944334
-0.15747515518187202,0.3717316979464397
1.064529655381726,0.0
-0.18791192823024175,0.0687223048918729
-0.14925094639402423,0.09850707794280385
-0.18678956277780595,0.2400021698110001
-5.328766672493639,0.39436789364806946
0.2016451875549419,0.28796328010134536
-0.24088855311492594,0.012775740587778254
0.7136137465456381,0.039781320628247074
0.2624762186536871,0.2884385648883931
-0.18791192823024175,0.3003555089876544
-0.1212809358324981,0.07167300643266289
0.9998523083998173,0.040393463931539975
0.06760395152097964,0.06348810933670068
-0.0961512532382555,0.040659190580116834
0.729878729282211,0.1509796231487955
0.34072407425378953,0.03354066122842471
0.019482824583576853,0.030347759016814142
0.06551617334734557,0.0
0.3301614530321403,0.0
-1.9087545141295652,0.10314867629345133
1.90983071412902,0.31047542415549007
-0.15204172807174174,0.06596129091709804
-0.16143040042933285,0.1187385955756147
-0.045601858472500936,0.27909792413056195
-0.2720674070072678,0.3087195036373167
0.2502231879774354,0.213684945754023
-0.20311432253318928,0.2137408774393631
0.2695657411899484,0.21750357956388566
0.3758402698842341,0.2532566328813629
0.4015059413882233,0.3239487227508132
0.587166403355608,0.0835613644273655
-0.6039205843608199,0.041658964867236976
0.2690374419525777,0.028558909930334723
0.6092807020789752,0.03974201504370982
0.5330277736046598,0.20931196885258396
-0.1122828456420742,0.13132245400540116
-0.10452853653867923,0.0013103506155565906
-5.010275916335272,0.0
0.5832545596205381,0.36046733728737407
-3.3551618396531775,0.0
-0.5289977372331931,0.2222978588828374
1.3115235620296462,0.21943154564050016
-0.13285906441808437,0.01839138779994533
0.34087943707167034,0.11055336262473488
0.6117241841123552,0.0897778692586181
-0.13752328629123253,0.19417770897585068
-0.14783582319881808,0.04107806109224592
-0.17873612119710977,0.053078061287209384
-0.4900241793805748,0.12789077986456027
0.3112863653931548,0.22959456280279017
0.3493048680860746,0.19649631622721433
-0.7019738141861666,0.17032572659558487
0.5708599852404675,0.05267056794060053
-0.11039531307251312,0.09598998072275541
-0.11776417490428104,0.019548279330761243
-0.26020517278326805,0.2188775913967824
-0.17517152985431303,0.012371645155685037
-0.6753418414580074,0.24161920188012578
0.1701668669336844,0.049036796389754785
-6.455300673988776,0.0
3.6726894506772734,0.0698443587774834
0.6511574666136393,0.03800575099756691
0.46115569670107187,0.15495011362399333
0.19232153147218556,0.03666115922946651
0.5605336306366956,0.029717663489684895
1.092400293564927,0.25315205369856963
0.6337533649140467,0.029007837163147292
-0.035262130081427236,0.2001448557522686
0.6054510995382824,0.25577039451774336
-0.22693027259798432,0.15564661498396304
-0.10652001648100655,0.03189778660356485
-0.15880450231157048,0.21039519260153824
0.9225027469707283,0.05337184624394809
0.6092807020789752,0.026971996634880552
0.47373309982799494,0.12942840675532594
-0.14054687943236024,0.015065922292147135
0.38746295705492756,0.2660120310111699
-0.38821318711775427,0.27222782427398134
1.1767481562961954,0.09603907172865299
0.8697928851986887,0.1158747831404277
-1.3300675788966856,0.1075425076806612
-0.1770942391715381,0.24215527420637734
-0.2469270376166194,0.04563857827347204
0.33463685545827965,0.25589401181024257
-0.26501356348219385,0.263079577434492
0.4196032646808169,0.12832381925509223
-0.11039531307251312,0.252638651174924
-0.377752066346703,0.20966059805266665
-0.214070399667699,0.11860858997702593
-0.1122828456420742,0.046481489808041836
0.7560513223005649,0.18670672759554963
0.07034171051585301,0.0689150584274439
0.2975662148222718,0.01674526741463322
0.41634522956468706,0.02732072606134967
-0.2055542835957666,0.1677028125804782
-0.1678157097723014,0.12169873227613749
-0.1122828456420742,0.06501439198513859
0.2529466694111346,0.08040043907522965
-0.28719078326193537,0.21483577359050032
0.3053085234982087,0.10111089550388934
-0.12802518375964417,0.11137014783636023
-0.5483184541587894,0.13064064234435238
0.16490054796751194,0.13908368432025617
-0.02972916034348925,0.109059723616477
-0.15478225643896246,0.07038789739436922
-0.13752328629123253,0.16660486902059424
0.4369573968620414,0.0
0.546116453721805,0.0
-0.6910981969979657,0.22881151578526446
-0.1004272390704179,0.27487840564507704
0.03138113885666231,0.1553956255369198
0.403333939006245,0.051894229272777245
-0.10652001648100655,0.29608434888809576
0.12968187834366934,0.23232545911357924
-0.28646669176537143,0.1218956742693103
-0.3190828919441839,0.20072423359982575
-0.1122828456420742,0.2850709536963858
-0.10847496167440107,0.3428437340194387
0.45553814026616896,0.03184926405939743
0.33736148375471126,0.10266369916813405
-0.16529114865018726,0.3061502940569734
0.19232153147218556,0.272091611971312
-0.10452853653867923,0.3231412356607279
-0.5586128050222192,0.3306134710201818
-0.00042686188850790343,0.1874914729986596
0.35555941099968785,0.26483575993120523
0.4144254333021808,0.28366216652005616
0.5084349521490966,0.1661891444900718
-4.044982494338322,0.0
1.0970355253653497,0.18322388997312625
1.1568873530504633,0.289636829458009
-0.28664370232360864,0.14441361065324348
0.5222867064502523,0.5340701004384243
-0.7123395364867425,0.2714159955834597
-0.14496418585893353,0.11703181609710618
-0.21110225081040004,0.21406947736051085
-8.399287745572073,0.0
-0.13752328629123253,0.18293174802649437
-0.3626712802415119,0.29955945896234104
0.6041915471521718,0.12003169911914703
0.017643929273107383,0.0970181350589318
-0.16655820578529457,0.21610062876428587
-1.2115572597239679,0.15623009346248565
1.6775845903120128,0.26933702340748017
-0.15478225643896246,0.11410248767191303
-0.8941099399201445,0.2638647672845818
0.36267619744538876,0.33819870263682367
-0.20809186563531412,0.5316814403728422
-0.15065279226605718,0.375646663206618
-0.2907681747688105,0.3397793932463733
-0.09831248498464798,0.00885449951673496
-0.14350684346477308,0.03056764207731764
-0.2337971022840823,0.21947986385108192
-0.1122828456420742,0.06845809695282588
0.29110004317826593,0.3034293544584542
0.10085055526774332,0.22253906072592347
-0.6398233100502304,0.3392546298838199
-0.15204172807174174,0.15061271138504131
-0.17153299589365673,0.0358301941623722
0.20126786783098966,0.011771765999103274
-0.22179179419069128,0.18686033377785358
-0.21796520930734614,0.30208344691513217
1.468191113048142,0.3273425026079582
0.5763028224999043,0.09532812780932408
4.060119910722196,0.09985093953652438
-0.3025092727818918,0.23647282717020782
-0.09329924638982691,0.13941291902413924
3.5750565596300192,0.21669393767758108
-0.9871929472264487,0.2686090209583318
0.40033043944532276,0.09595296529211375
-0.10847496167440107,0.5148951064219552
-0.06413814356455222,0.6415140066561056
-0.00042686188850790343,0.3680825628417882
-0.05996773132786582,0.4053759878079629
0.5202055001732352,0.6481281025225349
0.8630904052450674,0.3988580110663211
-2.1024183567574286,0.0
0.17302102937149952,0.0
4.462212981773735,0.0
-0.017378612045515884,0.2411892665333104
-0.5781192272566467,0.25633461923656775
-1.4101256257505248,0.25927064358133944
-0.2699103754659709,0.318398647901796
-0.14350684346477308,0.1342492318188278
-0.340791963827421,0.13347887510881842
-0.16401431696469235,0.14254897764472274
-0.2618177479466783,0.0747786569990345
-0.1312675338830548,0.09758810925141723
0.49408747671660463,0.1910129428302921
-0.1912395760203507,0.08099029201597584
-0.9015577009469774,0.05505776810874931
-0.24176040050813852,0.08694030737933393
-0.14925094639402423,0.05525337524561962
-0.30352294790172196,0.44801183501462594
-0.11953547977111446,0.12218027751948299
-0.1230016435166487,0.4888902428226859
-0.23289553188474993,0.21238042522255413
-0.13598630595884778,0.4421655918054294
-0.1799086489023914,0.14057286697091206
-0.8311465360930168,0.27738128862237593
-0.11413918758073124,0.2505807567446281
-0.11776417490428104,0.2502068850003469
0.37420301473188583,0.2089434264518675
0.7418899839286404,0.30828338472279476
-0.11039531307251312,0.25531121096383647
-0.15204172807174174,0.11798971639187332
-0.29365023801855883,0.06583732626351337
-0.12965648593349846,0.07628020433779849
-5.35978394271336,0.0
2.475918983479155,0.0
-6.920421262866253,0.0
0.29165250216373567,0.3951461621181694
-0.4759920410544133,0.276562692878434
-4.747341944201445,0.10484085621851111
1.399836491486102,0.3014211350993849
-0.1923360215998038,0.28258287022096334
-0.10847496167440107,0.037768760986588996
-0.24088855311492594,0.3765486406374421
0.1054314801538505,0.2940228950729438
-0.14640703767791738,0.173820381176433
0.6106076726641538,0.06699624642312864
-0.23016969092957373,0.12536320408167215
-0.14054687943236024,0.0516164543265008
0.10808825574024536,0.054114588869903515
-0.12802518375964417,0.028230492250582485
-0.12802518375964417,0.1037529669562664
-0.11039531307251312,0.04311809686346346
1.1560819699780511,0.019889422342550582
-0.8918219862631533,0.4092939068175511
0.357842343739418,0.3155534602160285
-5.649422828756726,0.27705425092522556
-6.196964206668272,0.3814214420483182
-0.14243933284916385,0.18163617677721217
9.950644268437983,0.1679363383477632
0.2695657411899484,0.3362450095985264
-0.13443177073732696,0.15444600274733936
0.22862546712980167,0.11539331327869445
-0.11776417490428104,0.19128903817889598
-3.9958520622875073,0.3250334363275326
0.9041519232568562,0.034357912651683586
1.1843971832584592,0.17731548317704593
4.913150406161151,0.1684481778522203
0.9576362920734509,0.23508583784626844
0.2385376921754052,0.16519716625452352
1.0147184171599004,0.33240075455664864
-0.20503738379270686,0.28022173270097445
0.4726438328890409,0.08098356102213282
-3.8203339195467767,0.23021808044126413
-22.219620817501458,0.572595482011709
-14.52992749257762,0.7064940971434721
0.23393426942345102,0.2063665507022987
0.5125412645904786,0.02825982734940114
-0.11596583676547118,0.009427664049428243
0.7190280083109366,0.12057748707003316
1.1670589091637855,0.2862445886948634
-0.1122828456420742,0.1976190656896402
0.35336075807879386,0.22801936397440742
-0.33518156176655045,0.15357564643530522
-0.21209623860189486,0.11738056658644457
-0.3068327593664697,0.29405243662750463
0.9068702333739777,0.25333668131442566
0.6479480110055823,0.37303415407267293
1.0536155611328741,0.13582837145288787
0.4671338813775699,0.1813265574855139
-8.007359981509692,0.2532752879864754
4.7274228618258665,0.31603080125258837
-6.05126163867308,0.24217342690953444
-0.11953547977111446,0.2017023144480166
-0.26342048534983303,0.342079018479958
-0.21313884822823567,0.3129324123574516
0.11461670157740354,0.5573139221043913
-0.14783582319881808,0.3829485388972718
-1.7483480999330974,0.28505367058221615
-0.22084134901345892,0.20823260494168147
-0.18223110911143708,0.31920378250086895
-0.34856810650767417,0.34726037902093854
-0.2986272128618467,0.07356516458874729
0.15227679271691855,0.20380076043020703
17.978020050562193,0.12707261410025447
-3.713520844909083,0.2065347585412981
0.22411987442237785,0.24221285820274094
15.592701856420366,0.16411845059481311
0.5580676202448425,0.19251195078382832
-0.3409430588472422,0.5099764338389196
0.12571471342291513,0.5446240770373166
1.355642084778442,0.1556850705210163
0.6746322839951647,0.028668528879458803
0.6055394419204293,0.12549851846279092
-0.16401431696469235,0.3628796762347968
-0.19013681944338567,0.0
-0.33227918125375433,0.5014930645793385
0.7706617300050745,0.18610226549586512
-0.09167613869880728,0.12379310198135447
-0.11953547977111446,0.5093029951844835
0.5117345457415811,0.2540801053816201
-0.10652001648100655,0.307929167793228
-4.932937415126292,0.0
-2.0795868793349044,0.24468607312311302
-0.1775558631279157,0.06333654458683093
5.770114044878395,0.08844354942723195
-0.14350684346477308,0.07145363425608173
0.41617799347527445,0.4852785063880922
-0.5239077903669692,0.38748766779758165
-0.11413918758073124,0.2554255797168977
-0.16143040042933285,0.13896003218624675
0.4057837864834274,0.34862932290297854
0.4720224790293432,0.22312116315168962
1.498142495341411,0.15669356285008196
-0.5840676174793243,0.04876065752977551
0.46199474044592015,0.30829383195903637
-0.1775558631279157,0.3995323082983598
-0.41550884836611723,0.4549943686521471
-0.1987879700997214,0.06391025530128219
-0.2900432034300644,0.13081370545672497
-0.41342164681604726,0.5014633255410779
-0.3541667507516167,0.4826198338810883
-0.2907681747688105,0.27784196193325894
-0.10452853653867923,0.0
0.18592642024523462,0.08074538825790772
-0.20289924931687378,0.23680762017924173
0.42472865354552963,0.3920511026753202
0.8770161260543945,0.28409519082354595
-0.1230016435166487,0.24674745227545633
0.34252966362086784,0.2716082711619177
-0.14350684346477308,0.09107343697293555
-0.18452438880959016,0.07655757032401568
0.8304651391666468,0.3552222425734316
0.4196032646808169,0.13757854328833477
1.634068114479857,0.25844870925680213
-7.497094130710501,0.0
-4.783300443890432,0.7303263931970764
5.030183132174203,0.20932728436032297
-0.47723688102005934,0.07369624115189445
-0.11039531307251312,0.009804575617209916
-0.17636771949939256,0.07460867560180466
0.8006262404715375,0.015607007456251024
0.4970935938718768,0.0
-0.4053129179520814,0.17056969738346534
-0.21209623860189486,0.019311228640706484
0.49850572547104743,0.07715052400008532
-0.7970069217051728,0.06500128131245038
0.020087099794821907,0.167893271974819
-0.1890276414169226,0.17025803647273774
-0.9301304177229736,0.30787965321377414
0.2695657411899484,0.8235311181704237
-0.2789435764614704,0.06313153832873217
0.2562423140088844,0.24970028200500094
0.4654086010307872,0.058354806121230625
-0.1312675338830548,0.20434349464495855
-0.1312675338830548,0.12908153054146185
-2.8362427824396454,0.0
0.810599070202674,0.09728015943382737
-0.11596583676547118,0.006420448290375401
-0.38232385040058536,0.05718883878910216
-0.0939403360308144,0.0986142971618377
-0.10452853653867923,0.016944919586415988
3.604781435286188,0.016135634329700325
-3.586092926380651,0.08465807381965389
-0.20503738379270686,0.0
-0.6761937832796457,0.0
-0.11413918758073124,0.07248584577563083
-0.08935461106563791,0.03856980408263029
0.7678424978960412,0.07180502264179624
0.13503742089066806,0.09214075266741303
-0.10452853653867923,0.1364360242310014
0.6209435381468708,0.034564623082786614
-1.7063603368122096,0.26803265758143524
0.4369573968620414,0.10964879047840008
-2.3358644281606766,0.04984412258167055
4.7888022105565,0.07185437780183522
-5.597904034411952,0.6474686919769754
1.5816711753879296,0.13268415777895406
0.2153698089481958,0.026125184780062653
-0.12469862733124305,0.0
-0.11776417490428104,0.5243855846763458
-0.4184964068134452,0.16546950013017275
-1.1823987133382081,0.07520792389144507
0.6846045233500735,0.01721000156477794
0.6041915471521718,0.06725078428325401
-0.12802518375964417,0.058277219935550115
-0.23016969092957373,0.2730352270225197
-0.3499439495838691,0.358079445846169
0.43932341869840574,0.23650104749849613
-0.1890276414169226,0.05075183458309618
-0.1312675338830548,0.1473789436154402
-5.693803329984377,0.0
-0.20720573886364838,0.2397265908072178
-0.20253269206003396,0.2285550226488694
1.2618948289718923,0.23608307357141117
-0.12637284300007906,0.09601424556175948
-0.15880450231157048,0.010636680443554484
-0.16272748064261483,0.1729040191445545
-0.10452853653867923,0.07146628876745356
-0.15204172807174174,0.05607401728613904
0.701366870734802,0.042818166982853005
-0.22693027259798432,0.15523506424910383
-0.1230016435166487,0.2519425421925569
1.6816280143770481,0.15618364861056616
0.1716072531192201,0.009092232963188588
-0.12802518375964417,0.14052921473809485
1.1598927910807035,0.08236710465737249
-4.475946693640949,0.0
-0.22179179419069128,0.10651947031894961
0.8211294643293239,0.15469200213129994
0.9288964025428006,0.0
-0.11039531307251312,0.2183588618733986
-0.21699804536935663,0.1215660876316986
-0.0961512532382555,0.02685980778494047
0.16490054796751194,0.1963014827721213
-0.14350684346477308,0.38981508706758683
0.7418899839286404,0.2308272976504784
0.07268485535223486,0.1717795143355073
0.1716072531192201,0.12614609362147056
-0.09141258208921264,0.02756354216415869
0.4653402392156894,0.06586854045796144
-0.14350684346477308,0.057727594544215555
0.5329263240323558,0.1357753671138331
-0.12802518375964417,0.03835691017218712
-0.5813696077436281,0.15689397628572843
-0.4482877500120467,0.3121060136345989
-0.12637284300007906,0.12953541442668318
-0.7959887408317976,0.3114069971184742
0.4844369204416885,0.24976955082678606
-0.1212809358324981,0.13455325730680318
-5.714539146360475,0.17842710076526855
0.46225588411274704,0.24126854902435355
7.470374783589991,0.032582067675856266
0.9429984134126436,0.026492165783738503
25.28096348556739,0.19984388427036343
-0.18452438880959016,0.07280077507471784
-0.0961512532382555,0.16815823108612624
-0.1890276414169226,0.31761657770949936
0.5164791441800991,0.38090720993135874
-6.153792423173156,0.29485932396125697
-3.798820357379506,0.0
-0.21699804536935663,0.08648289898918582
-0.4909891761581122,0.4044008918721165
-0.14054687943236024,0.13173487804074474
0.20629811143847968,0.32453879416345405
-0.1212809358324981,0.30720454655686574
-0.13285906441808437,0.1010664085423995
0.19359453891091105,0.16618810449225857
-0.10249839232716584,0.18862270296538167
0.1874060695094869,0.2658000841348547
-5.126992888983964,0.9280959542769918
1.4260411820279255,0.2633880864124616
-0.11596583676547118,0.49708812301005895
-0.5075600596440543,0.5027111405189134
0.4144254333021808,0.28753364842369233
-0.25448097700026173,0.4247434334660744
-0.13443177073732696,0.37635498309866044
-0.11039531307251312,0.39236169698401546
0.5789117199594256,0.3495949140774487
0.4354357952868535,0.09502914580138422
1.1316471073767473,0.39365704067991025
0.47565291316164315,0.3164810408567933
0.7461013751079378,0.16496784284258167
1.3237780672931394,0.3306371268741064
0.525475195719727,0.33570063314902054
1.0825106441249666,0.30041821351366027
-0.25448097700026173,0.3658285408727525
1.079748939769834,0.23547986460095938
-1.0922442414374889,0.1348450306296709
-0.5459732722777084,0.13156849646742302
1.1988330638222462,0.17837006416423273
-0.17153299589365673,0.0868618852224545
-4.783300443890432,0.0
0.7442890588030288,0.07734688724490452
0.9780202893499583,0.07524039206864201
0.5538324783045365,0.005255738849477197
0.9778555793922336,0.23687597947411265
0.4974592231680753,0.29864849573597785
0.5785055792170878,0.3418530449611449
0.42813644683941604,0.12158024677714598
-0.21110225081040004,0.3801551473953698
0.3777663917513309,0.38309718824171957
-0.16143040042933285,0.00500560430226701
0.13098101052443198,0.12078786737882377
0.5097178293957746,0.1136000441023935
-0.42395473461170124,0.32772929004769996
-0.21172818892565415,0.27449075362866066
1.2212266028711867,0.2317521504105424
0.5457872765189298,0.11425024482314261
-3.970457443773427,0.12506570253928914
-0.8493513247945649,0.3486491192148982
1.7490038858477346,0.0714860351484524
0.5376670103368932,0.2747863209052036
0.2720117113371806,0.06179154128947322
0.013052541899628184,0.30944638029469906
-0.3190828919441839,0.07630439448991831
-0.10652001648100655,0.054917552680275976
-0.14783582319881808,0.22048346437225813
1.128997183372958,0.1674987854769186
0.4860897610336082,0.08905685548228628
-0.26342048534983303,0.18837062517314535
-0.6557321809889001,0.4685208897070253
0.02218603850346379,0.2598304517207073
-0.1987879700997214,0.288546886765095
-0.14496418585893353,0.5338280253746128
-0.6913454934452281,0.48390644991750265
0.5014699667024323,0.24589413676969923
1.0510466518317254,0.43787088620365927
1.3869212174159125,0.31757544070796206
0.6362030443888663,0.08852238320266
-0.29186425099541874,0.2194842105710384
0.3770865255311468,0.14133336201977728
0.5008849381169509,0.3664928482499155
-0.14496418585893353,0.07486959342658028
0.9465341497071036,0.14147137679349744
-0.14054687943236024,0.3595968409732324
0.998606910384774,0.19088950290166032
-0.29610852112568387,0.33694243571857857
-0.12965648593349846,0.10761879123166417
0.34696293266275274,0.30565670750796387
0.9411109218130863,0.10052505251321552
0.5464138821507288,0.2876566863009494
-0.01676990719872067,0.35319299419864747
1.3766304757570564,0.112666950811973
-0.10452853653867923,0.19099590389322746
-0.1312675338830548,0.17502810851920322
-0.24435733382815478,0.27064512420951464
-0.10249839232716584,0.09747680984391836
-6.001092345461753,0.43276377991802634
-3.999107086294609,0.0
-3.7367265144569095,0.0
-0.5027065279668742,0.31865700181370454
0.5034956879729299,0.1852696222020093
-1.6284346836039991,0.3627513329873247
0.17199952435977117,0.34286837748715093
3.9834729136835474,0.11850779431710881
-0.48518939424418606,0.1586023579327867
0.3589174495137986,0.28337437391565623
-0.13904329388940265,0.21463885682344797
0.6322811279956416,0.26211235274417116
-0.5716370488814885,0.5554782481963569
-0.2661558466683765,0.13084303217168672
-4.401731198706949,0.0
-10.697827787018928,0.37749557489913516
-6.320539712958562,0.18514841446829908
-0.23289553188474993,0.1364688308218954
1.344991406985033,0.2525745987990708
0.5861355238811488,0.4607862291239241
0.7045574693825146,0.4636813279078182
1.8869027541615326,0.5047163656928915
0.7239488106509272,0.2558262391765952
-0.3074894211079912,0.32948263301441666
6.740715662686686,0.06119202162351497
-3.48792878308736,0.6499844661394402
0.693798479459908,0.22258422611929138
-0.9298919537900828,0.5671685823589461
0.6283275374315284,0.14110553670177498
-0.16655820578529457,0.2156633797216397
0.32096655280124775,0.22489479927815295
-0.4280175897013548,0.21283053959998377
-0.04106917492401462,0.07519479007539015
-0.1923360215998038,0.08771389350946501
-0.5232809773626405,0.024593433041121174
-4.936075282807869,0.052115399313518336
-0.6527400425408483,0.29455878812455255
-0.16401431696469235,0.2751690207927879
-0.23648124761752795,0.063913761256688
-0.07530567331001427,0.06173357807125738
0.48022049448313064,0.3244420726271296
0.6223834406614986,0.07537238110614797
-0.17636771949939256,0.0944314311070003
1.6850411191179095,0.16173101866258616
1.141432074785873,0.13033191244729597
-0.45619240084244833,0.3216302947583966
-10.082218013020908,0.2972461477645386
0.5148695749037471,0.2546881728363296
-0.11953547977111446,0.02313612833185837
9.752700515485968,0.15877277488394767
-0.09141258208921264,0.05434748620396313
0.7947569279465099,0.20960574288507952
-0.21110225081040004,0.0714150611989933
-0.28491697565059276,0.02641510924725085
-0.11953547977111446,0.1118891874524668
-0.12637284300007906,0.0953847635615048
-0.5040426599248967,0.21602247125727234
0.4726438328890409,0.193960760807455
0.32317685730424195,0.16802119132003746
-0.1212809358324981,0.12611319166537124
-0.13752328629123253,0.26345075571479204
-0.24435733382815478,0.10827256510706593
0.4720224790293432,0.30700707414166106
-0.11413918758073124,0.3714757706334876
1.9245319774436298,0.09332188291610516
0.06785840652294735,0.08982433147494186
-0.13904329388940265,0.20993791878803214
1.3815742637972157,0.45133539637252207
-0.09831248498464798,0.2330845176598586
-0.12965648593349846,0.31138341681709886
0.8002063293095022,0.40359960280315393
0.028105208247216986,0.6072286312252144
0.3098073966377023,0.09347339578421432
-0.10847496167440107,0.18344174138405822
-0.16143040042933285,0.362503928439566
-0.23648124761752795,0.0697760281411492
-0.20254890008332233,0.19660971934179494
-0.35264582791553284,0.3242568485843821
0.23767215601926744,0.30576958132455956
0.6055394419204293,0.2061861163922304
0.2877729401925123,0.24488194623093412
-0.33518156176655045,0.20240243637477098
-0.1230016435166487,0.15989295256801864
0.7345796040051585,0.04481593324370694
-0.14925094639402423,0.17455503446103487
-0.20910013236362981,0.6106661343969362
-0.11420913182274285,0.30612522633750083
0.6041915471521718,0.16904627303568226
0.5329263240323558,0.1929337808976691
-0.1004272390704179,0.06895363351359252
-0.6133069814638865,0.21748961442812886
-0.00837502923437966,0.5126079884917057
-4.772360536632533,0.1635176144199955
0.9562737608822617,0.19916063258486194
-0.4563288551018302,0.3936898036180912
-0.11776417490428104,0.102290372957475
0.3589174495137986,0.019763813517887894
0.3062499503655707,0.41107820842593273
-0.15880450231157048,0.3660855585564441
-0.10652001648100655,0.2945369450001934
-0.13752328629123253,0.2083812504917705
0.5605336306366956,0.35157315260128164
0.6059945965629265,0.16566121300550543
-0.2494703533205525,0.0943190535027337
-0.13752328629123253,0.08436021541016316
-0.1004272390704179,0.15071492473710046
-0.12292861338973084,0.47622887377488393
-0.19666079598857505,0.11535685602435525
-0.13904329388940265,0.028737987203441423
-0.2538925954737402,0.25820550415219345
-5.607725884925318,0.31364419796064985
1.5537048644604443,0.3942349133312379
1.5536382314803996,0.34056224019494374
-5.583053427035829,0.10875519965184878
-0.3658444708372979,0.42295895381978615
-0.12965648593349846,0.05621117835671471
-0.19558855066249684,0.05366974488621736
-0.1212809358324981,0.06905073533648347
-0.0031098455173532154,0.02004719733926498
-0.2759085779181454,0.30927916347633244
0.357842343739418,0.1874986910795581
-0.11596583676547118,0.08954224611689374
-0.13285906441808437,0.4386222761614412
-0.1004272390704179,0.02260429052433699
-0.27129267110967237,0.18088517831105158
10.373873650784265,0.4049147738766118
0.2326324269895252,0.3075483373234474
0.5887862852832012,0.17995255210373007
-4.940757472415553,0.4346820784806181
-4.101940696410059,0.0
1.1001538055229803,0.27757295652220254
-0.18338132777583982,0.3504881865418135
-0.10847496167440107,0.5707546419815684
0.6084735324003953,0.29827607190657185
-0.4175352068846729,0.2782231510493428
-0.11039531307251312,0.2127564541543271
0.8436896532927046,0.2652700769846236
0.40729526078151684,0.22420843384641836
-14.340930096589622,0.18194169580916147
-0.3688452078681253,0.10662874120575914
-3.2326829180954784,0.5324788111613905
-0.10249839232716584,0.04577383604620746
-0.14783582319881808,0.011707190944843482
8.49332721630968,0.2734387714334603
0.48848568343859816,0.2585074515529997
1.0146713754819683,0.1715615534149243
0.31876869513025957,0.26908009090539364
-3.9558271585764824,0.0
1.743176375219926,0.2989155461840794
-7.167657652622396,0.5239652904293408
1.8078178047714606,0.4493743331429138
1.1001538055229803,0.5248750670748172
2.462227818651239,0.0
-0.0961512532382555,0.12691434509968805
0.019482824583576853,0.030010357101909125
-0.11582692550940195,0.07949824750178108
-0.0961512532382555,0.5360111871103508
-0.0961512532382555,0.36150196743683405
0.5538324783045365,0.23122795742847124
0.5271314987457544,0.1089024280193834
-0.972979754987714,0.1975566764758455
-0.1212809358324981,0.1753617322985233
0.41476181902849124,0.13014869145742647
-2.401003347658382,0.18130251037736714
-0.30143446807872615,0.43404759428894707
0.2695657411899484,0.15230047545862135
-1.1013136642554857,0.26024543756165536
-0.1230016435166487,0.1654742765781024
0.520523989372314,0.17788470475648274
-0.32496980707505196,0.14001571955894548
-0.1934262635043832,0.306309962916134
0.6178935024377215,0.14765613358213778
0.7928562093086885,0.3085380269661846
-1.1173736955902311,0.41123339222701105
-0.321712529001031,0.21080798276198845
-0.6323451546743858,0.21255949306820118
-0.1890276414169226,0.26018567747666954
0.2502231879774354,0.19888740585870116
-0.4285104118367677,0.24427045220262306
-0.12802518375964417,0.02715277603590017
-0.5752786230804113,0.24803202576886837
-0.13285906441808437,0.0
-0.04386572960438264,0.03738115143431103
0.5118767428655189,0.23105694213868416
0.8373971574308645,0.16537999700644612
-0.18452438880959016,0.0
0.45145244345182334,0.0
-0.12802518375964417,0.152283803325945
-0.18223110911143708,0.22381387154742627
-0.16401431696469235,0.04695053008217141
-0.21988680573960648,0.28542105998148315
-1.5530596279591735,0.2965349855978641
0.2972771928240973,0.36393261989421516
-0.14925094639402423,0.09261299795275187
-0.16529114865018726,0.09249026078394859
-0.20289924931687378,0.06001146881025986
-0.10847496167440107,0.28296290855989426
-0.13904329388940265,0.03247776596265454
0.7851788236998838,0.08596072579954851
-7.39022383815344,0.9749860009554546
-3.8035108428264333,0.6858115986326152
4.833433877361706,0.28447544444521894
2.020731945324166,0.20788783019993243
-3.1628245825843697,0.0
-0.4510716558041798,0.1411584103397378
-0.527529358061969,0.3401892942933982
-0.11596583676547118,0.3201778683582769
-0.15204172807174174,0.11965009271773257
-0.49667546951455044,0.053250116313086945
-0.14925094639402423,0.02869245231219762
1.480362387284244,0.34725719696538704
-4.204141739504723,0.9364871179039793
-4.163972349330948,0.2834169509412442
2.00925162696419,0.12989905540705454
0.4755151806251412,0.22746029683170765
-3.801458184300198,0.2712900032659819
0.2695657411899484,0.050606629495625874
0.08598137835020955,0.0654816233483475
-0.32510365248316114,0.35211940789398694
-0.12965648593349846,0.2105923939700424
0.8986873597003189,0.2397629090437305
-0.1799086489023914,0.27200703651895625
-0.11776417490428104,0.09718710667629493
1.2726188899021595,0.33339535007431575
-0.17396712822067828,0.1558620617379587
-0.4243051719154083,0.0
-0.1212809358324981,0.0
0.5329263240323558,0.0
-0.11776417490428104,0.0
-0.13752328629123253,0.0
0.9187264255282506,0.0
-0.20606056450141574,0.0
-0.17153299589365673,0.0
-2.8385482274123506,0.35508157637970483
0.012807661309674473,0.1733362412103783
-0.11413918758073124,0.27720901551585037
0.5034956879729299,0.21564609613295746
0.16561672472427164,0.33614906475372025
-0.1312675338830548,0.3274218769670245
0.16071091743666838,0.3239983937997375
0.44321067520466206,0.10819749346309228
0.3751803211569189,0.36732175126098926
-0.03224253155236623,0.1919779882743693
-0.13443177073732696,0.280452557846472
-0.1230016435166487,0.198912012373377
1.2704021788208726,0.22000493925110048
0.6123636818767247,0.013165973272747345
1.6699694759215309,0.03351818832931662
0.31140815507874375,0.27402114261472277
0.5933913551307426,0.14521531620544387
1.1873937361142566,0.20353335373779724
0.7108856558167487,0.2560431078235809
-1.3645070450339092,0.2652488805172951
1.3314422128351353,0.22875057808634694
0.38476182799564385,0.2577043893831369
0.5330277736046598,0.1445063261781144
-0.11039531307251312,0.10819091410833162
0.9323144079132698,0.47709424705720277
0.6223834406614986,0.08551947841468541
-0.25612947248219015,0.1794169341130838
-0.08935461106563791,0.11115472175262779
-0.24777770122630505,0.018950118536782804
-0.14925094639402423,0.2154158565613983
0.7239488106509272,0.18557498914448212
-3.9699612453871236,0.009503004736599726
-0.457331393739132,0.20937293207592494
-0.21532260580466014,0.17951212726487378
-0.6739122603672246,0.2810181381459196
0.5548405380827627,0.16030051397965625
-0.13443177073732696,0.11299916286331878
0.5980301868165172,0.10882367151673768
0.021491482323472196,0.2304534155179832
-0.14496418585893353,0.1540323595533884
-0.13904329388940265,0.05723677649450299
-0.14783582319881808,0.18976345541451584
-0.14640703767791738,0.05921692379758549
-0.14925094639402423,0.048172932284885187
0.45266819811569114,0.3930401763814826
1.2192003125288025,0.33107125810305127
-0.1703029031733669,0.12070547001239597
0.051905961824097,0.4133688432046064
-0.3444817625542665,0.14302808235559503
-0.10452853653867923,0.4383675178317973
0.8699094276399936,0.7167732469036313
0.4280463043122379,0.14840409254800271
-0.1212809358324981,0.17236142319297693
-0.1890276414169226,0.030636182416153287
0.41586040775329725,0.27362428805507427
1.0246575552336743,0.10153597151856594
0.2807870838420915,0.20606855436548108
-0.18223110911143708,0.08717615398130421
-0.12802518375964417,0.05264948331720778
-0.2400135480147998,0.04886554986303106
-0.10452853653867923,0.14838374682846245
-0.18223110911143708,0.06903001510177427
-0.18107359641596088,0.08626130409931271
-0.1987879700997214,0.008689720864114613
-0.2032604030313067,0.751372596642663
-5.26240513353785,0.021042963707699897
-0.214070399667699,0.33752425463990826
-0.10652001648100655,0.35577086188409757
1.2711574845686422,0.20535957621496412
-0.10847496167440107,0.2056334463655304
-0.408854430183538,0.09895120677800398
-0.16272748064261483,0.18279009643635505
-0.3438695294296254,0.265305913597817
-0.23108186766813052,0.031222594047596326
0.8511306450349784,0.25760523082923087
0.8269979827468535,0.23054019249915622
0.7291333407218388,0.1161022365785976
-0.11413918758073124,0.01753234855560731
-0.20809186563531412,0.24792120697480874
0.5828794748218666,0.05164602707948152
-0.01926104197862052,0.08091672866824458
-0.0939403360308144,0.3089649695981985
-0.15613450446393193,0.14181998443470178
-0.22931815309750553,0.18533835737105017
-0.14640703767791738,0.30460063563844747
-0.13443177073732696,0.27604623208821333
-0.16655820578529457,0.10266851947582775
-0.12802518375964417,0.0323724331208246
-0.11953547977111446,0.15658672968703452
-0.1122828456420742,0.37125427851015397
-0.0822599560283554,0.07900328135229291
-0.2227381937322412,0.10952017581071147
-0.11413918758073124,0.09816458544380571
0.7387021452821927,0.2757571239316616
0.33029437212678014,0.03525421277585046
-0.13285906441808437,0.09004719388499782
0.8865722596969509,0.14147781211431662
-0.14925094639402423,0.1510242193304227
-0.20780163289582484,0.18519883692974698
-0.09987658831337862,0.32260243327110527
0.28566059997066223,0.18740278983000183
0.06196631346552287,0.25223385127324716
-0.20503738379270686,0.05054057397327746
-0.30490735699977184,0.33911072483527943
-0.17636771949939256,0.3784630374230929
0.7927581038971633,0.08333557678475234
-0.11413918758073124,0.11969571353719938
0.3589174495137986,0.31869671539874256
-0.40726195242402957,0.3082745683829958
1.3217535114556695,0.047543790795124566
0.3685913906132059,0.04787766808411601
-1.1059659868524108,0.11937046825527968
-0.02478309360246974,0.19130479311246168
-3.676656567792115,0.0
1.0420823317719692,0.10647896084192508
-0.13598630595884778,0.12717813484394183
0.017643929273107383,0.1387859354565928
-0.1230016435166487,0.057425070161491794
-0.17396712822067828,0.09514448908319341
-0.36814207451964986,0.1642988142072685
-0.17636771949939256,0.0716658492460434
0.6223834406614986,0.0960991572102268
-0.2019368042820411,0.18561784253765515
-0.15341810444650472,0.031357265380436594
-0.14350684346477308,0.075603807769821
-0.20904971327710042,0.31503359520181295
0.6851731345155339,0.18784855922615998
-0.13752328629123253,0.3100500610772131
-0.7764460571555498,0.30109571857174333
0.6336345983504086,0.30243381839082895
0.6936160251267625,0.19092611337754373
0.32289035426756874,0.15107375606314144
0.8187479187888886,0.0
0.7112313208115058,0.0
-0.3153914634535643,0.36994123486079417
-0.11039531307251312,0.28175079155952454
-0.13752328629123253,0.30615394223417397
0.17953389983074425,0.3305678423675325
0.42082551935866674,0.06320913737507383
0.17065689976509077,0.3141511154591354
3.7203457992737263,0.09434491889038378
0.8487029474661869,0.23490721931034073
-5.461123401183157,0.0
-0.11596583676547118,0.05205605566872522
-0.24862546326734775,0.1923028435700081
-0.10847496167440107,0.1411608634269137
-5.496408709731959,0.4949037110048311
0.1463207324497581,0.1478293891006887
0.44471673890839536,0.398204882499751
0.32317685730424195,0.191626510192131
-0.2937648575370565,0.32095180994948835
-4.79271572527954,0.0
-0.3539170613718335,0.44615154165526155
0.9613827682629645,0.05081109938055885
-0.16655820578529457,0.05209484446204285
-0.10452853653867923,0.21418142468004472
-0.45479978230079054,0.10812324719931916
-5.409286240945276,0.0
-0.2929323691874624,0.3171367613045212
-0.3517459436492765,0.360763615785984
-0.11953547977111446,0.5721345003023128
-0.18678956277780595,0.06180303770058557
0.008198089186879318,0.3903187578079113
0.33029437212678014,0.09312209447437361
0.5028634574917317,0.06459248621712442
-0.41453459291641176,0.135164993078959
-0.07951664742798281,0.21258373371726197
0.9608277274629372,0.026783509082233925
0.38070739939823234,0.09660551332585532
0.3589174495137986,0.32905690234745527
0.41780542158942846,0.2256188806072331
-6.9631111738260465,0.5340893836738005
1.1113122715911137,0.2763519555773995
0.34696293266275274,0.36902333208688587
1.920975314440666,0.23962673956866065
0.4318107521597455,0.03026041976377093
0.09190425596406003,0.1086075705435008
0.27842559398511435,0.3350931988139415
0.4890034661386859,0.3892496090721789
-0.6338668632126293,0.28053546132400314
-0.23913535054522633,0.1927164779141932
0.1584639274635098,0.19058308040362237
-0.16272748064261483,0.5366595744512548
-0.2907681747688105,0.5715784955611581
-0.0939403360308144,0.1386742496807898
-0.14925094639402423,0.23816465264951428
-0.10847496167440107,0.15037625998717236
-0.13904329388940265,0.27552770327781817
-0.13598630595884778,0.3166976036468895
-0.14925094639402423,0.19624572532367196
-3.774107811171665,0.3505548233718638
0.42813644683941604,0.18200593455738134
-0.20720573886364838,0.33166445466196864
-0.13752328629123253,0.06462559551783506
-0.11039531307251312,0.07356106089534668
-0.12965648593349846,0.13270300785738284
-0.13285906441808437,0.15597556224634182
0.24501127413295534,0.44244818938495023
-0.17873612119710977,0.007729463928095474
-0.16655820578529457,0.0303728829159669
-0.14640703767791738,0.18131776621700404
-0.13752328629123253,0.07951959618546395
-0.11413918758073124,0.10540504682764153
0.16898989049383376,0.2231151794144461
-0.582657380742408,0.011479943381263891
0.29716855756869665,0.04720048329205329
-2.369866450976164,0.17759910458709371
0.3685913906132059,0.035279701996824904
4.323715213232709,0.033643234105403604
-0.3006576186260612,0.2511343405949224
-4.193961363830784,0.08458563162177864
0.24994068681306242,0.04748863978482951
-0.23108186766813052,0.5415305848815013
4.251601825418518,0.1110533715501437
-0.16529114865018726,0.04851382479216714
-0.18678956277780595,0.3736185095650204
-0.15065279226605718,0.11049476387597781
-0.15880450231157048,0.08730068354679103
0.7106311154909586,0.11938123991400035
-0.21988680573960648,0.4377016450292925
-0.15341810444650472,0.44679531980285864
-0.09167613869880728,0.023013494164202754
-0.42404379476784226,0.2759025757376796
-1.9179930442272808,0.23531602300598153
0.8227749598648934,0.08777489708653255
-0.1912395760203507,0.21835202523875036
-0.14496418585893353,0.1696124520775039
-0.18223110911143708,0.08226744305874818
-0.5386827136950417,0.14053899667074699
-1.4216245920132928,0.4540102183065774
2.563435646073032,0.13895279882991424
1.2037829592627567,0.09103617681148027
2.5067700713884724,0.20191564630201753
-4.649280769039596,0.7547590289651367
1.0865993312866757,0.2107725631742719
-0.10452853653867923,0.3198704253163719
-0.12802518375964417,0.03646023573094511
0.23144230123713436,0.22150671044947126
0.1786071791004491,0.16843776701015242
-0.28936060791100426,0.2487835866707874
-0.2869591629837278,0.3097889732817173
-0.1678157097723014,0.0
-2.155981441130599,0.20664373362725116
-0.10452853653867923,0.16501948117552614
-0.3305816328107944,0.2718925840423272
-0.003496981259454781,0.08344466097068387
-3.01467291548633,0.07749446144776896
-0.12802518375964417,0.07143662814919265
-0.12637284300007906,0.10935696537475846
4.492028596364875,0.11540136508463496
1.8999755496164004,0.134556844268243
-0.2877977378203103,0.08820955833395429
0.39159237155282195,0.0
0.6002605458722079,0.1086176832260895
-4.40537619272062,0.0
0.9269220717482503,0.4779066382008004
-0.23648124761752795,0.2787690002213165
-0.11413918758073124,0.1994160065251928
-0.10249839232716584,0.04058912149100075
-0.44589401769339476,0.3278879303646188
-0.213085600173499,0.25402261307168317
0.38016142354226107,0.2656646108782655
-0.11413918758073124,0.2991703660468841
-0.16529114865018726,0.16994361350610188
0.6484461445109495,0.3092145793279736
-0.10847496167440107,0.1541623375180603
-0.5861561421429076,0.08481829118337045
0.35218206779380146,0.136536794073118
0.2366381543878058,0.23647007785289742
-0.4070504577886033,0.049091006670960224
-0.13598630595884778,0.0814626393108454
0.03937858692408456,0.14732644109414356
-1.299129700060656,0.24451408148698509
0.2784531975615698,0.6890955320586308
0.4708290255938692,0.19184655954132132
0.6904602040221165,0.2939043531039001
-0.15065279226605718,0.0
1.1351779994001352,0.14466137113612015
-0.10652001648100655,0.37335773186537957
0.8644391467023216,0.4216273482145727
0.438185839114045,0.10673246169528632
-0.18452438880959016,0.09744321763072927
-0.09831248498464798,0.09082271575975051
0.2235487323653063,0.03277991371024872
-0.1004272390704179,0.2618144505793622
1.219422288070989,0.46603745841745753
-1.694633045112769,0.5319775613565411
-0.1890276414169226,0.21523082290870893
-0.345249822103848,0.11041907058489486
-0.23469521883019667,0.29674373555210964
0.3053085234982087,0.5132057395974339
-0.13285906441808437,0.06808455475232468
-0.12965648593349846,0.14137904954520003
0.12556217555795643,0.1892986769626713
0.8941786955506523,0.2248063282473438
-0.6752376661070095,0.3001248887587681
0.39503666386576924,0.2677167498153759
-4.811812773747456,0.15395990901294232
-4.528162101971341,0.1287024598629501
0.7169803535322885,0.26344534679987
0.2016451875549419,0.28925180565360303
0.727090151033026,0.12283533800287486
-3.4873770556488286,0.19944535637144822
1.2556924351737087,0.4785253923865686
0.5269907302326594,0.23497665007543567
-4.322600749355397,0.045465563345803796
1.1715122247629528,0.3140320226480563
2.3289659882844176,0.11580639168555093
-1.5872353570664535,0.3060549187853945
-0.12469862733124305,0.1632615651929193
-1.216557432138919,0.43575955476252537
4.225652166946326,0.07899873355261743
-0.21172818892565415,0.08745441449971167
0.0975534838455765,0.03489257108626729
-0.1775558631279157,0.2645591108122846
-0.004478026946988868,0.14636137879362812
0.3599253942396965,0.23575401031664267
0.4117297669672599,0.04741799372892076
1.0498728256509096,0.025738657289101873
-0.14350684346477308,0.010716770637613188
0.9189042715189735,0.16418193223892338
-0.14203456445541773,0.1667686625017214
-0.2972136870549364,0.14652747334102123
-0.13904329388940265,0.14524060856756374
-0.18338132777583982,0.20624809990079956
-0.3339220779846573,0.2398469245674898
-0.3790473474139025,0.3480580139108005
-0.4102732902615293,0.28995502176031873
0.7566243819465891,0.25194036795950936
-2.795357460006318,0.32082301041213246
3.530095209145791,0.17938613768920908
-0.15613450446393193,0.36381462716468843
0.24994068681306242,0.20200124725926524
-0.30143446807872615,0.5292810914591627
-0.20904971327710042,0.3184867190715821
-0.24088855311492594,0.17488989821921633
0.1337410121301605,0.4015252288389034
-0.1890276414169226,0.16303721376928595
-0.29105737796615183,0.23689128709278856
-0.14350684346477308,0.03628028101959406
-0.20707870043291826,0.08348791800643199
-0.27361032216653985,0.4561479677447646
0.21120780060983338,0.1933868088329208
0.2529466694111346,0.2623629546001407
0.8240742984765338,0.2278539537377838
0.08992963151489194,0.1398638952069905
-0.6128879108349131,0.3561416837670123
0.6587007472978209,0.0998352767254832
0.521317815432217,0.21985456017784866
-0.2804488068071882,0.2688200580318475
-0.20809186563531412,0.044735487932468426
-0.22461906023827147,0.07277565240263842
-0.23650903609955073,0.3277928253812543
-0.3676181895005329,0.28005012845365446
-0.1230016435166487,0.19285430196943976
0.1337410121301605,0.22318198254926666
-0.13598630595884778,0.28676453843115896
-0.23504942573093468,0.601593981450249
-4.581737970953847,0.44759945183083333
-0.18223110911143708,0.0
-0.10452853653867923,0.0
-0.1212809358324981,0.384393934574489
1.271395296681001,0.19307577314267402
-0.7081413304404047,0.3117089464540406
0.6054510995382824,0.18742452428390957
3.1812667573913602,0.16177908770092073
2.7970638578494986,0.3901693973548088
0.9890819447056781,0.5028500063165436
-2.796545437738511,0.3522538092909918
0.8304651391666468,0.20261052156447806
-0.09831248498464798,0.04376066727402541
-0.2774302114506919,0.13871710108069782
-0.11039531307251312,0.027249411048097544
0.4970935938718768,0.3513452257342453
-0.16529114865018726,0.07404966854084738
-0.14203456445541773,0.015440673211840863
-0.1799086489023914,0.3188233098363893
-0.09167613869880728,0.032712334625301064
-2.9168472722095093,0.07149788174443306
1.6787728583549633,0.0
0.2892992543895381,0.015931809116299142
-0.18338132777583982,0.11337117494650009
-0.14925094639402423,0.18972219858546135
-0.3517459436492765,0.03214662385368688
-0.41804027507168373,0.3259679359930537
-0.0961512532382555,0.04621334558393921
-0.13598630595884778,0.4169031434227183
-4.1422503036700675,0.13646629277698757
-0.6751257897802574,0.3714136967725055
0.45553814026616896,0.24047437635316748
-0.25858257580839966,0.4378573980338177
-0.15613450446393193,0.36406451178222987
-0.13904329388940265,0.10085470673297137
0.6851731345155339,0.24988575073793176
-0.1122828456420742,0.13362715992561394
-0.2536527248174004,0.21451017630865307
-0.16529114865018726,0.5940591718226881
0.6865296731985291,0.15450773214193952
-0.16529114865018726,0.4084499855496449
0.09163919940314713,0.1907871355263
-0.13443177073732696,0.5046225033406383
-0.14350684346477308,0.06330080935507088
-0.14054687943236024,0.40859352407326355
0.5785784358359496,0.265575341303134
0.28449693370153106,0.23645783343742255
0.7635849015955498,0.23167339911170817
-0.20459128875024118,0.522771158055229
-0.821908908848342,0.18803254847361878
-0.32432095489785207,0.26982073338391555
0.4219697111657284,0.24067394202543327
-0.14054687943236024,0.19285082639979942
0.2016451875549419,0.4643681221939197
-0.213085600173499,0.02731429732947666
0.0975534838455765,0.06947855599849422
-0.30143446807872615,0.04997714473229409
-0.21796520930734614,0.10317162980901066
-0.28022152700550834,0.32899523737228065
0.3009426782558331,0.11358762452845082
-0.6224855896937034,0.4816457171850633
-0.2679251035740838,0.0777222409447465
1.4956177833880524,0.3011929961959318
1.1163245830712338,0.24354393792138632
-0.14783582319881808,0.28060749743390245
-0.41449198639526236,0.11937093556416535
-1.2560290617834544,0.33773892013602674
1.9744193820384994,0.057006507149735416
-0.19772723800113617,0.0678977340413711
0.2476032593219785,0.03888138524038404
-0.10652001648100655,0.33980792259157344
-0.09235943675645159,0.20674000336327913
-1.0985448113509504,0.5030412470413496
0.10530900475324385,0.4489634378971597
-0.14925094639402423,0.2612184154891191
0.16490054796751194,0.17568459972470862
-0.15613450446393193,0.027757023672490264
-0.3783098106577822,0.1737260435284707
-0.12965648593349846,0.08380055335459537
0.19243733012906947,0.13605323945499986
0.3958316491718756,0.15302875903073054
-0.40876665738513096,0.2186682609522234
-0.10652001648100655,0.2226964788831993
-0.20289924931687378,0.14149164673349332
-0.20286438088169084,0.351344518057329
0.34072407425378953,0.25559481337861467
-0.022654726012627857,0.21468103825737642
-0.6413771639053517,0.0
-0.31375784677352236,0.16011654196044278
-0.1312675338830548,0.594143932927254
0.4974592231680753,0.32755375225176253
0.04779879616305631,0.3118087954141914
-0.5767524092453273,0.3954744011244678
0.2529466694111346,0.06464911164309335
0.6078664978876224,0.3289113550867775
0.2385376921754052,0.26204853452252524
-0.8384300541290324,0.0
0.3133695804887064,0.0
0.4318107521597455,0.0
-0.1230016435166487,0.39090587858801096
-0.08686506948995722,0.14573921249364793
-0.11953547977111446,0.209816572467082
0.5896645851373161,0.03609458466195343
-0.14203456445541773,0.1892061019019634
0.3107570007100535,0.46954969303345734
-0.31308587993371784,0.35478280336421475
-0.3184221069463366,0.3943709715550975
-0.15747515518187202,0.26906463971047495
-0.12637284300007906,0.06050147106646455
-0.25448097700026173,0.36700279286338694
0.43548104696004647,0.24131921698538425
-0.35078544149869345,0.3314376326273424
-0.17873612119710977,0.35298711227081825
-0.14350684346477308,0.15687803294683278
-0.21796520930734614,0.16102756195535659
1.2301825132105386,0.023108118522869425
0.3413856339352695,0.052022733183285874
0.31876869513025957,0.30569420684213305
0.7387021452821927,0.3780815570384835
0.18295896535981865,0.3729737178072483
0.0975534838455765,0.20091578381104244
1.8141411304350799,0.3879506836061297
0.8062009581475363,0.3332286430080242
0.3009426782558331,0.14498672777665483
0.10657015278676348,0.07512093050964302
0.3034014374587169,0.034122030586602
1.25042503185905,0.365039622850336
-0.15747515518187202,0.06769507881140067
-0.2900432034300644,0.12908809736308385
0.07535070946088393,0.01834684393693582
-0.3510899714111631,0.09998256581554088
0.4298010319173092,0.0996240433818689
0.04779879616305631,0.23384418585974315
0.48766929560576006,0.3251054639743531
-0.13285906441808437,0.24792764755434404
-0.16272748064261483,0.07273090489904131
-0.1230016435166487,0.2879940064612765
-0.10652001648100655,0.08277545076335957
0.31721863160477926,0.27486879936859854
0.011594537625659023,0.5905413402957692
-0.17153299589365673,0.2623644634576536
-0.13598630595884778,0.23847363560645926
-0.1004272390704179,0.021229603319554
1.5151584835253047,0.0140194900776476
-0.09167613869880728,0.15462081842986883
0.677069937635039,0.2864925027116096
-0.8846218342607416,0.1062668550765603
-0.13598630595884778,0.1942649105885764
-0.09831248498464798,0.04330106416272131
-0.41119735315834033,0.9451811077304566
-0.12637284300007906,0.02392673345397653
-0.1312675338830548,0.1411680874555599
0.04371363252856121,0.24871491951110067
-0.5577084587119941,0.0
-0.43921389897294016,0.1339618035132337
0.6696941346186426,0.11477205206219133
0.9513689534511575,0.22613918085586138
0.45083435810920286,0.02015702872338913
-7.32039010911989,0.12825369410164628
-0.1678157097723014,0.08960887353228732
-0.34325621079774793,0.22043904996752703
-0.23558992102347978,0.08360894424268983
-0.16143040042933285,0.18177550396059322
-4.710084216903946,0.04815064026075703
-0.10063669542514696,0.3330139628305826
-0.17396712822067828,0.22373591610993007
4.498286799386691,0.14236244285284708
0.5481408740383413,0.2537286081161013
-0.21458671017390157,0.39333184675881777
0.6971511351700174,0.4669268104208054
-6.69742864384632,0.11570457614002912
-0.3831710973771872,0.06069921899632505
0.666761057024009,0.3121422333387397
-0.19772723800113617,0.15910281479968788
-0.41113011203807226,0.3574915737019282
0.715648676977251,0.1381550524410932
-0.2511516333036301,0.26119084126295533
-0.01926104197862052,0.3602472961310033
-0.10847496167440107,0.11363356046410071
-0.20297558250456837,0.2182119596919399
-0.14925094639402423,0.031291587448293204
-0.28491697565059276,0.07502493370057454
-1.518863535593493,0.4185498587966862
0.18295896535981865,8.344540368056063e-05
0.9462191097818785,0.10726250224530628
0.9985779750759421,0.30976175663102834
-0.11596583676547118,0.12452143165239944
0.5640422297706315,0.19365663745866302
0.33046001303791683,0.1359433124675661
-0.025049461190314756,0.3826708493939701
1.2391192771044117,0.1765441766284523
0.8283545183459131,0.15782481624849592
18.618715913114027,0.3532318070690565
11.27491913616896,0.24742793190228715
-6.867798991578294,0.7205626400828795
2.344255632988179,0.16348820303969058
1.4844323487950588,0.41027969602958875
0.19815995550834564,0.26832165235116306
2.056836928052292,0.29299525321989145
0.7239488106509272,0.08911004026728062
0.3685913906132059,0.08723921113219263
0.5789117199594256,0.21530308127609546
15.334601672821584,0.20969629416441657
3.149594004069158,0.16938085762183958
4.184320271992721,0.6262212135963591
-0.20085720752405714,0.021564522390095073
4.512559988278559,0.4941716226655352
1.5867152362507613,0.19274267592977212
0.5067481719497166,0.1558777296619682
0.5329968487649138,0.27525506744500194
0.8612709002314332,0.35701173908640466
1.797316714315499,0.07546874938373808
3.5254973113760406,0.35635098027313
0.18592642024523462,0.09410756573406268
1.8102085785228277,0.13304037637231048
0.8505453508563974,0.3394887114894409
0.29004663130763814,0.2809092075317005
0.4132040916979441,0.23990489258458653
0.723672486438418,0.11052563674852885
-6.0065466646697265,0.0
-0.00837502923437966,0.20506584567719718
0.4369573968620414,0.41345592444285506
1.0240044229540515,0.11519433421613906
2.998490613594517,0.23433315191315035
1.7999106909857472,0.07220907201212097
0.695245193069968,0.39775185610293384
1.6296425294424843,0.27234195199082367
0.29326171621816843,0.20350350292124417
-0.1890276414169226,0.1380376094561081
0.7689517778319831,0.23029948203514475
-0.1998748921219793,0.2831077596223871
0.8011369384940717,0.21430206911106955
1.6740683169132229,0.31624558415015697
0.3078801140011116,0.43117757861549477
-0.8460853248863223,0.3314944387138859
-0.14640703767791738,0.30721312093326103
0.7778537613345781,0.1473650381701244
0.39002027592906585,0.13480480473558532
-0.7888685135920392,0.3060640184450412
-0.20089266585515972,0.41653496918312105
-0.15478225643896246,0.2439715122348624
0.8514099061425556,0.008702597561719358
0.19359453891091105,0.39080606405454393
-0.2720674070072678,0.23255815458702903
-3.6680485976940584,0.13425088158152582
-0.2886204835219304,0.4442484266111324
0.1401132225688619,0.5720891044178784
0.6865296731985291,0.1834221749693882
-0.16401431696469235,0.026979496080134977
-0.11776417490428104,0.5877847341748175
0.5797334972609807,0.1163760213283082
0.18666205990819387,0.19927174820194468
0.5721530169604113,0.3189530527651342
1.553747445695382,0.16791467269583785
-0.20459128875024118,0.1719822192791762
-0.12802518375964417,0.0
-0.5137142690614285,0.11307484841443918
-0.18791192823024175,0.46209144985573075
0.09651270773784146,0.3129318101230532
-0.18338132777583982,0.40089450746682587
0.6500268078887128,0.13282359751766704
-0.1678157097723014,0.3508356073693163
-0.22555362670725987,0.25354987001180423
-0.11776417490428104,0.24076594901988624
0.8359793218172548,0.5538637996077447
0.7136137465456381,0.4767824233907137
0.38016142354226107,0.473252623514354
0.6916932619973968,0.335497852939003
3.9648229444030236,0.31010088865108393
-4.2809941720941,0.8065843168967329
-3.8564663701797706,0.11383158920700524
0.5464138821507288,0.5636566013876871
-0.4635408215472964,0.1618805519275094
0.21068555600775662,0.5976868354710402
0.6490107640921251,0.47849117050539264
-0.214070399667699,0.0582787845689585
-0.11596583676547118,0.11637782849990239
0.8175527806229305,0.052133391540935145
0.6586479746037199,0.30551436035750856
0.707465859909074,0.2894948915537249
-0.352942193247236,0.46335965285338454
-3.151206212168499,0.23934769888730684
1.5566212092620717,0.11788103002236838
-0.0961512532382555,0.18439580839826622
-0.10452853653867923,0.19048329552715862
-0.23736923663873497,0.16573117472032797
0.4567015781989807,0.015754331060018213
-0.17396712822067828,0.015566857225038498
-0.13598630595884778,0.13369719454115095
-0.10452853653867923,0.3141463213779897
-0.09167613869880728,0.3482283106755127
-0.27667043675889186,0.2801508188273542
-0.48405306752637256,0.4416858011091726
-0.48637736868041054,0.17220166045718044
-0.14925094639402423,0.16311417908834094
0.5605336306366956,0.05732959184053283
-0.30559722060409394,0.2687688035582103
1.4026939906325275,0.3718835243435744
1.3903655869111118,0.23192804092995975
-0.10452853653867923,0.025786151453722508
0.17844711174229722,0.10557042420684432
0.5140536870028193,0.1035394879180584
4.790017820144105,0.03411748644517282
-5.622903354583734,0.7582450148736277
1.3489782466881877,0.13993560917921913
-0.18223110911143708,0.16038321967382976
-3.8356200098262745,0.0
0.6280642061422382,0.18252124922768392
-0.15204172807174174,0.2650487284438078
-0.597999914439717,0.17263019013803202
-0.1363565569866299,0.2811820306145405
0.8883175742784073,0.03979609510537514
-0.2878573808339939,0.02596096808597308
-0.5533922746289545,0.07021074125354608
0.38016142354226107,0.018659305665007914
0.5406409343307624,0.010749840470230568
-0.10652001648100655,0.09154974905835904
-4.337801720441731,0.0
0.5433150165598368,0.05902092471892142
-0.20606056450141574,0.13726434266119814
0.6193527268337108,0.1286679967373342
-0.14783582319881808,0.4312959686480526
-0.18678956277780595,0.22537787128977205
-0.2110390789350808,0.09403063655556644
-0.10412419781303664,0.13098158821402972
-0.10652001648100655,0.25615669462130713
0.7190280083109366,0.3513922054746905
0.44471673890839536,0.2561170410924625
-0.25466972238469054,0.10867320123903086
-0.11953547977111446,0.14029636198743528
0.21905390675679476,0.29392027539932136
-0.1004272390704179,0.08592512168063224
-0.1004272390704179,0.13572898198476901
-6.181615411130476,0.09134998235690625
0.1584639274635098,0.2180279594845452
-0.6613323998036897,0.29011412853329405
-2.9876857523357923,0.20585629317087747
0.24515443986362725,0.20653073143812015
-0.7126252606707589,0.2614958130844316
0.2784531975615698,0.24755320709422274
-0.20503738379270686,0.3058187312161198
-0.24998722875400084,0.1025682411878639
-1.4152136709050085,0.329212511879785
-3.3547411723163467,0.0
-0.20663109403806618,0.5164718266943744
-8.808954754457929,0.7542808686755429
0.38016142354226107,0.22714683813749464
-4.932937415126292,0.1542967966883031
0.07535070946088393,0.2661057713930139
1.351672649147666,0.24562532158596925
1.5674945993485698,0.3238496544847708
2.3575878059878774,0.40380412137825294
-4.804619691500208,0.6706503202602613
-0.7567843418024318,0.33413237836611215
0.5118767428655189,0.150711128586986
0.2695657411899484,0.2488453765442219
-0.1799086489023914,0.2728163191944519
-0.14783582319881808,0.20251376758793227
-0.38232385040058536,0.21234167147692384
2.0256446182857424,0.1232246412941967
0.3217454449212624,0.07970310010945891
-0.10346101022604025,0.20124758523613717
0.38802984888530395,0.256489287664032
-0.10452853653867923,0.1579275586432468
-0.47390669572667304,0.24254606615218388
9.743321047645741,0.07323125400235066
0.2016451875549419,0.1814790040366071
-0.6210330556922334,0.28543507326281914
-0.4961283781913653,0.2660310042340666
-0.4725673789502334,0.39128263914721567
1.0730226419878028,0.13700809592051447
2.7838216656640147,0.15454815819207215
1.274160930232771,0.24585289264624796
-10.230219873396582,0.533776174358544
-0.11392917858858954,0.3633075071155102
7.45786930094279,0.3764472567758697
1.4349579687878473,0.3054363646927637
0.8547002277027527,0.24726538016420027
0.9331741573299288,0.29084227979320415
0.6322315269814377,0.04519626117594568
0.6797636092347847,0.021044487076305213
-14.160747143577552,0.5239554206690035
0.7723652493773452,0.23771869834078477
-1.527101724341908,0.20043202300440613
-0.20459128875024118,0.17595314671539483
3.502555832622378,0.2694460791216419
-2.6683610187415163,0.0
0.5708831723917445,0.12243973549358751
0.5866671813952979,0.15350020472697815
-0.214070399667699,0.46483379278253023
-0.02913872096236165,0.19259657206687933
0.38070739939823234,0.42773155936226415
-7.384217501975997,0.043494718299861686
-0.1987879700997214,0.3301722995609479
-0.3042159363126729,0.24701156265964241
-1.2895751176118915,0.28571244498521675
0.4876579113811013,0.20435475194190886
-0.11413918758073124,0.2776176653201829
2.314020216911463,0.10045736745718038
-0.42504876744824643,0.2691441225697591
0.23244772946971382,0.0
1.9205469772003256,0.1813430865791439
-0.15747515518187202,0.23508151915337233
1.0289052548838418,0.20421500243948035
1.092400293564927,0.1746893832785141
-0.15204172807174174,0.08308063382443982
-0.20297558250456837,0.16445881298357867
-0.21110225081040004,0.1773755705437141
-0.21606554867087424,0.11780755700987987
-0.15204172807174174,0.2903596903627042
-1.2818362539945993,0.24087206937513203
-0.09831248498464798,0.582921531891676
-1.2900564567426032,0.14757897233896644
-0.2878573808339939,0.153319402457137
-11.103857463848952,0.212162299230283
-0.21602656170085494,0.10246273288508072
